digraph Tree {
node [shape=box] ;
0 [label="leaders <= 1.5\nmse = 50375.3138\nsamples = 1848\nvalue = 506.4194"] ;
1 [label="write_pct <= 42.5\nmse = 47596.4657\nsamples = 264\nvalue = 903.7045"] ;
0 -> 1 [labeldistance=2.5, labelangle=45, headlabel="True"] ;
2 [label="followers <= 2.0\nmse = 39227.8232\nsamples = 88\nvalue = 1045.0795"] ;
1 -> 2 ;
3 [label="write_pct <= 25.0\nmse = 23776.3733\nsamples = 72\nvalue = 1110.7083"] ;
2 -> 3 ;
4 [label="write_pct <= 15.0\nmse = 2580.3542\nsamples = 36\nvalue = 1168.75"] ;
3 -> 4 ;
5 [label="followers <= 0.5\nmse = 461.8673\nsamples = 18\nvalue = 1184.2778"] ;
4 -> 5 ;
6 [label="mse = 229.9008\nsamples = 11\nvalue = 1192.9091"] ;
5 -> 6 ;
7 [label="mse = 525.3469\nsamples = 7\nvalue = 1170.7143"] ;
5 -> 7 ;
8 [label="followers <= 0.5\nmse = 4216.6173\nsamples = 18\nvalue = 1153.2222"] ;
4 -> 8 ;
9 [label="mse = 6059.2893\nsamples = 11\nvalue = 1136.7273"] ;
8 -> 9 ;
10 [label="mse = 221.551\nsamples = 7\nvalue = 1179.1429"] ;
8 -> 10 ;
11 [label="write_pct <= 35.0\nmse = 38234.7222\nsamples = 36\nvalue = 1052.6667"] ;
3 -> 11 ;
12 [label="followers <= 0.5\nmse = 57192.5833\nsamples = 18\nvalue = 1008.8333"] ;
11 -> 12 ;
13 [label="mse = 78313.3388\nsamples = 11\nvalue = 961.4545"] ;
12 -> 13 ;
14 [label="mse = 14932.2041\nsamples = 7\nvalue = 1083.2857"] ;
12 -> 14 ;
15 [label="followers <= 0.5\nmse = 15434.1389\nsamples = 18\nvalue = 1096.5"] ;
11 -> 15 ;
16 [label="mse = 15706.3802\nsamples = 11\nvalue = 1109.7273"] ;
15 -> 16 ;
17 [label="mse = 14299.3469\nsamples = 7\nvalue = 1075.7143"] ;
15 -> 17 ;
18 [label="followers <= 4.0\nmse = 2157.6875\nsamples = 16\nvalue = 749.75"] ;
2 -> 18 ;
19 [label="write_pct <= 35.0\nmse = 544.9375\nsamples = 8\nvalue = 784.25"] ;
18 -> 19 ;
20 [label="write_pct <= 25.0\nmse = 504.3333\nsamples = 6\nvalue = 777.0"] ;
19 -> 20 ;
21 [label="write_pct <= 15.0\nmse = 505.6875\nsamples = 4\nvalue = 785.75"] ;
20 -> 21 ;
22 [label="mse = 650.25\nsamples = 2\nvalue = 777.5"] ;
21 -> 22 ;
23 [label="mse = 225.0\nsamples = 2\nvalue = 794.0"] ;
21 -> 23 ;
24 [label="mse = 42.25\nsamples = 2\nvalue = 759.5"] ;
20 -> 24 ;
25 [label="mse = 36.0\nsamples = 2\nvalue = 806.0"] ;
19 -> 25 ;
26 [label="write_pct <= 25.0\nmse = 1389.9375\nsamples = 8\nvalue = 715.25"] ;
18 -> 26 ;
27 [label="write_pct <= 15.0\nmse = 205.25\nsamples = 4\nvalue = 684.5"] ;
26 -> 27 ;
28 [label="followers <= 6.0\nmse = 110.25\nsamples = 2\nvalue = 672.5"] ;
27 -> 28 ;
29 [label="mse = 0.0\nsamples = 1\nvalue = 683.0"] ;
28 -> 29 ;
30 [label="mse = 0.0\nsamples = 1\nvalue = 662.0"] ;
28 -> 30 ;
31 [label="followers <= 6.0\nmse = 12.25\nsamples = 2\nvalue = 696.5"] ;
27 -> 31 ;
32 [label="mse = 0.0\nsamples = 1\nvalue = 700.0"] ;
31 -> 32 ;
33 [label="mse = 0.0\nsamples = 1\nvalue = 693.0"] ;
31 -> 33 ;
34 [label="write_pct <= 35.0\nmse = 683.5\nsamples = 4\nvalue = 746.0"] ;
26 -> 34 ;
35 [label="followers <= 6.0\nmse = 1.0\nsamples = 2\nvalue = 725.0"] ;
34 -> 35 ;
36 [label="mse = 0.0\nsamples = 1\nvalue = 726.0"] ;
35 -> 36 ;
37 [label="mse = 0.0\nsamples = 1\nvalue = 724.0"] ;
35 -> 37 ;
38 [label="followers <= 6.0\nmse = 484.0\nsamples = 2\nvalue = 767.0"] ;
34 -> 38 ;
39 [label="mse = 0.0\nsamples = 1\nvalue = 789.0"] ;
38 -> 39 ;
40 [label="mse = 0.0\nsamples = 1\nvalue = 745.0"] ;
38 -> 40 ;
41 [label="followers <= 0.5\nmse = 36790.619\nsamples = 176\nvalue = 833.017"] ;
1 -> 41 ;
42 [label="write_pct <= 57.5\nmse = 41385.16\nsamples = 88\nvalue = 932.1023"] ;
41 -> 42 ;
43 [label="write_pct <= 47.5\nmse = 51686.7346\nsamples = 33\nvalue = 762.8485"] ;
42 -> 43 ;
44 [label="mse = 3683.6033\nsamples = 11\nvalue = 967.8182"] ;
43 -> 44 ;
45 [label="write_pct <= 52.5\nmse = 44178.8678\nsamples = 22\nvalue = 660.3636"] ;
43 -> 45 ;
46 [label="mse = 44491.2397\nsamples = 11\nvalue = 664.8182"] ;
45 -> 46 ;
47 [label="mse = 43826.8099\nsamples = 11\nvalue = 655.9091"] ;
45 -> 47 ;
48 [label="write_pct <= 95.0\nmse = 7703.2443\nsamples = 55\nvalue = 1033.6545"] ;
42 -> 48 ;
49 [label="write_pct <= 65.0\nmse = 5448.142\nsamples = 44\nvalue = 1005.75"] ;
48 -> 49 ;
50 [label="mse = 10453.686\nsamples = 11\nvalue = 951.6364"] ;
49 -> 50 ;
51 [label="write_pct <= 85.0\nmse = 2478.1671\nsamples = 33\nvalue = 1023.7879"] ;
49 -> 51 ;
52 [label="write_pct <= 75.0\nmse = 2548.7624\nsamples = 22\nvalue = 1007.3182"] ;
51 -> 52 ;
53 [label="mse = 4396.1818\nsamples = 11\nvalue = 1019.0"] ;
52 -> 53 ;
54 [label="mse = 428.4132\nsamples = 11\nvalue = 995.6364"] ;
52 -> 54 ;
55 [label="mse = 709.4711\nsamples = 11\nvalue = 1056.7273"] ;
51 -> 55 ;
56 [label="mse = 1150.3802\nsamples = 11\nvalue = 1145.2727"] ;
48 -> 56 ;
57 [label="write_pct <= 65.0\nmse = 12560.3135\nsamples = 88\nvalue = 733.9318"] ;
41 -> 57 ;
58 [label="write_pct <= 47.5\nmse = 13799.0718\nsamples = 44\nvalue = 689.7955"] ;
57 -> 58 ;
59 [label="followers <= 2.0\nmse = 2727.9008\nsamples = 11\nvalue = 807.0909"] ;
58 -> 59 ;
60 [label="mse = 62.2449\nsamples = 7\nvalue = 843.5714"] ;
59 -> 60 ;
61 [label="followers <= 6.0\nmse = 988.1875\nsamples = 4\nvalue = 743.25"] ;
59 -> 61 ;
62 [label="followers <= 4.0\nmse = 1250.8889\nsamples = 3\nvalue = 747.3333"] ;
61 -> 62 ;
63 [label="mse = 1806.25\nsamples = 2\nvalue = 742.5"] ;
62 -> 63 ;
64 [label="mse = 0.0\nsamples = 1\nvalue = 757.0"] ;
62 -> 64 ;
65 [label="mse = 0.0\nsamples = 1\nvalue = 731.0"] ;
61 -> 65 ;
66 [label="write_pct <= 57.5\nmse = 11374.6961\nsamples = 33\nvalue = 650.697"] ;
58 -> 66 ;
67 [label="write_pct <= 52.5\nmse = 11385.8533\nsamples = 22\nvalue = 617.6818"] ;
66 -> 67 ;
68 [label="followers <= 2.0\nmse = 10097.1736\nsamples = 11\nvalue = 674.0909"] ;
67 -> 68 ;
69 [label="mse = 13849.9184\nsamples = 7\nvalue = 647.7143"] ;
68 -> 69 ;
70 [label="mse = 181.6875\nsamples = 4\nvalue = 720.25"] ;
68 -> 70 ;
71 [label="followers <= 2.0\nmse = 6310.562\nsamples = 11\nvalue = 561.2727"] ;
67 -> 71 ;
72 [label="mse = 4998.4082\nsamples = 7\nvalue = 519.1429"] ;
71 -> 72 ;
73 [label="mse = 65.0\nsamples = 4\nvalue = 635.0"] ;
71 -> 73 ;
74 [label="followers <= 2.0\nmse = 4812.3802\nsamples = 11\nvalue = 716.7273"] ;
66 -> 74 ;
75 [label="mse = 2859.9592\nsamples = 7\nvalue = 752.4286"] ;
74 -> 75 ;
76 [label="followers <= 4.0\nmse = 2095.1875\nsamples = 4\nvalue = 654.25"] ;
74 -> 76 ;
77 [label="mse = 6.25\nsamples = 2\nvalue = 611.5"] ;
76 -> 77 ;
78 [label="mse = 529.0\nsamples = 2\nvalue = 697.0"] ;
76 -> 78 ;
79 [label="followers <= 2.0\nmse = 7425.5181\nsamples = 44\nvalue = 778.0682"] ;
57 -> 79 ;
80 [label="write_pct <= 95.0\nmse = 2476.2487\nsamples = 28\nvalue = 829.9643"] ;
79 -> 80 ;
81 [label="write_pct <= 85.0\nmse = 3118.3311\nsamples = 21\nvalue = 833.381"] ;
80 -> 81 ;
82 [label="write_pct <= 75.0\nmse = 2757.0867\nsamples = 14\nvalue = 834.6429"] ;
81 -> 82 ;
83 [label="mse = 3630.5714\nsamples = 7\nvalue = 834.0"] ;
82 -> 83 ;
84 [label="mse = 1882.7755\nsamples = 7\nvalue = 835.2857"] ;
82 -> 84 ;
85 [label="mse = 3831.2653\nsamples = 7\nvalue = 830.8571"] ;
81 -> 85 ;
86 [label="mse = 409.9184\nsamples = 7\nvalue = 819.7143"] ;
80 -> 86 ;
87 [label="followers <= 6.0\nmse = 3125.6875\nsamples = 16\nvalue = 687.25"] ;
79 -> 87 ;
88 [label="write_pct <= 85.0\nmse = 1913.9722\nsamples = 12\nvalue = 710.1667"] ;
87 -> 88 ;
89 [label="followers <= 4.0\nmse = 712.1389\nsamples = 6\nvalue = 680.8333"] ;
88 -> 89 ;
90 [label="mse = 93.6875\nsamples = 4\nvalue = 693.25"] ;
89 -> 90 ;
91 [label="mse = 1024.0\nsamples = 2\nvalue = 656.0"] ;
89 -> 91 ;
92 [label="write_pct <= 95.0\nmse = 1394.9167\nsamples = 6\nvalue = 739.5"] ;
88 -> 92 ;
93 [label="mse = 28.2222\nsamples = 3\nvalue = 760.3333"] ;
92 -> 93 ;
94 [label="mse = 1893.5556\nsamples = 3\nvalue = 718.6667"] ;
92 -> 94 ;
95 [label="write_pct <= 95.0\nmse = 458.75\nsamples = 4\nvalue = 618.5"] ;
87 -> 95 ;
96 [label="write_pct <= 75.0\nmse = 82.6667\nsamples = 3\nvalue = 630.0"] ;
95 -> 96 ;
97 [label="mse = 0.0\nsamples = 1\nvalue = 618.0"] ;
96 -> 97 ;
98 [label="mse = 16.0\nsamples = 2\nvalue = 636.0"] ;
96 -> 98 ;
99 [label="mse = 0.0\nsamples = 1\nvalue = 584.0"] ;
95 -> 99 ;
100 [label="leaders <= 4.5\nmse = 20148.2174\nsamples = 1584\nvalue = 440.2052"] ;
0 -> 100 [labeldistance=2.5, labelangle=-45, headlabel="False"] ;
101 [label="write_pct <= 47.5\nmse = 20418.0\nsamples = 456\nvalue = 578.0"] ;
100 -> 101 ;
102 [label="followers <= 7.0\nmse = 11309.382\nsamples = 190\nvalue = 639.0474"] ;
101 -> 102 ;
103 [label="leaders <= 3.5\nmse = 6315.6304\nsamples = 135\nvalue = 686.9185"] ;
102 -> 103 ;
104 [label="write_pct <= 15.0\nmse = 4496.7504\nsamples = 100\nvalue = 708.64"] ;
103 -> 104 ;
105 [label="followers <= 0.5\nmse = 2841.79\nsamples = 20\nvalue = 654.9"] ;
104 -> 105 ;
106 [label="mse = 1690.25\nsamples = 4\nvalue = 609.5"] ;
105 -> 106 ;
107 [label="leaders <= 2.5\nmse = 2485.5625\nsamples = 16\nvalue = 666.25"] ;
105 -> 107 ;
108 [label="mse = 1561.1875\nsamples = 8\nvalue = 699.25"] ;
107 -> 108 ;
109 [label="mse = 1231.9375\nsamples = 8\nvalue = 633.25"] ;
107 -> 109 ;
110 [label="leaders <= 2.5\nmse = 4007.9944\nsamples = 80\nvalue = 722.075"] ;
104 -> 110 ;
111 [label="write_pct <= 35.0\nmse = 4579.2066\nsamples = 48\nvalue = 736.2917"] ;
110 -> 111 ;
112 [label="mse = 3915.5677\nsamples = 24\nvalue = 717.625"] ;
111 -> 112 ;
113 [label="mse = 4545.9566\nsamples = 24\nvalue = 754.9583"] ;
111 -> 113 ;
114 [label="followers <= 4.0\nmse = 2393.25\nsamples = 32\nvalue = 700.75"] ;
110 -> 114 ;
115 [label="mse = 2939.0208\nsamples = 24\nvalue = 706.75"] ;
114 -> 115 ;
116 [label="mse = 323.9375\nsamples = 8\nvalue = 682.75"] ;
114 -> 116 ;
117 [label="write_pct <= 15.0\nmse = 6312.751\nsamples = 35\nvalue = 624.8571"] ;
103 -> 117 ;
118 [label="followers <= 3.0\nmse = 355.3469\nsamples = 7\nvalue = 506.7143"] ;
117 -> 118 ;
119 [label="followers <= 1.0\nmse = 442.25\nsamples = 4\nvalue = 498.5"] ;
118 -> 119 ;
120 [label="mse = 0.25\nsamples = 2\nvalue = 515.5"] ;
119 -> 120 ;
121 [label="mse = 306.25\nsamples = 2\nvalue = 481.5"] ;
119 -> 121 ;
122 [label="mse = 29.5556\nsamples = 3\nvalue = 517.6667"] ;
118 -> 122 ;
123 [label="followers <= 1.0\nmse = 3440.3099\nsamples = 28\nvalue = 654.3929"] ;
117 -> 123 ;
124 [label="write_pct <= 42.5\nmse = 3836.1875\nsamples = 8\nvalue = 591.25"] ;
123 -> 124 ;
125 [label="mse = 1224.6667\nsamples = 6\nvalue = 622.0"] ;
124 -> 125 ;
126 [label="mse = 324.0\nsamples = 2\nvalue = 499.0"] ;
124 -> 126 ;
127 [label="followers <= 3.0\nmse = 1049.2275\nsamples = 20\nvalue = 679.65"] ;
123 -> 127 ;
128 [label="mse = 1162.3594\nsamples = 8\nvalue = 696.875"] ;
127 -> 128 ;
129 [label="mse = 644.1389\nsamples = 12\nvalue = 668.1667"] ;
127 -> 129 ;
130 [label="leaders <= 2.5\nmse = 4135.1207\nsamples = 55\nvalue = 521.5455"] ;
102 -> 130 ;
131 [label="write_pct <= 35.0\nmse = 1328.7289\nsamples = 15\nvalue = 584.2667"] ;
130 -> 131 ;
132 [label="write_pct <= 25.0\nmse = 913.3333\nsamples = 9\nvalue = 568.3333"] ;
131 -> 132 ;
133 [label="followers <= 12.0\nmse = 309.8056\nsamples = 6\nvalue = 579.8333"] ;
132 -> 133 ;
134 [label="mse = 4.0\nsamples = 2\nvalue = 595.0"] ;
133 -> 134 ;
135 [label="mse = 290.1875\nsamples = 4\nvalue = 572.25"] ;
133 -> 135 ;
136 [label="followers <= 16.0\nmse = 1326.8889\nsamples = 3\nvalue = 545.3333"] ;
132 -> 136 ;
137 [label="mse = 380.25\nsamples = 2\nvalue = 568.5"] ;
136 -> 137 ;
138 [label="mse = 0.0\nsamples = 1\nvalue = 499.0"] ;
136 -> 138 ;
139 [label="followers <= 12.0\nmse = 999.8056\nsamples = 6\nvalue = 608.1667"] ;
131 -> 139 ;
140 [label="write_pct <= 42.5\nmse = 506.25\nsamples = 2\nvalue = 641.5"] ;
139 -> 140 ;
141 [label="mse = 0.0\nsamples = 1\nvalue = 664.0"] ;
140 -> 141 ;
142 [label="mse = 0.0\nsamples = 1\nvalue = 619.0"] ;
140 -> 142 ;
143 [label="write_pct <= 42.5\nmse = 413.25\nsamples = 4\nvalue = 591.5"] ;
139 -> 143 ;
144 [label="mse = 42.25\nsamples = 2\nvalue = 575.5"] ;
143 -> 144 ;
145 [label="mse = 272.25\nsamples = 2\nvalue = 607.5"] ;
143 -> 145 ;
146 [label="write_pct <= 25.0\nmse = 3159.0744\nsamples = 40\nvalue = 498.025"] ;
130 -> 146 ;
147 [label="leaders <= 3.5\nmse = 2245.3594\nsamples = 16\nvalue = 466.125"] ;
146 -> 147 ;
148 [label="write_pct <= 15.0\nmse = 42.9167\nsamples = 6\nvalue = 486.5"] ;
147 -> 148 ;
149 [label="mse = 21.5556\nsamples = 3\nvalue = 483.6667"] ;
148 -> 149 ;
150 [label="mse = 48.2222\nsamples = 3\nvalue = 489.3333"] ;
148 -> 150 ;
151 [label="write_pct <= 15.0\nmse = 3168.29\nsamples = 10\nvalue = 453.9"] ;
147 -> 151 ;
152 [label="mse = 4422.96\nsamples = 5\nvalue = 468.2"] ;
151 -> 152 ;
153 [label="mse = 1504.64\nsamples = 5\nvalue = 439.6"] ;
151 -> 153 ;
154 [label="followers <= 24.5\nmse = 2637.5399\nsamples = 24\nvalue = 519.2917"] ;
146 -> 154 ;
155 [label="followers <= 8.5\nmse = 2019.2889\nsamples = 15\nvalue = 546.6667"] ;
154 -> 155 ;
156 [label="mse = 512.8889\nsamples = 3\nvalue = 603.3333"] ;
155 -> 156 ;
157 [label="mse = 1392.4167\nsamples = 12\nvalue = 532.5"] ;
155 -> 157 ;
158 [label="leaders <= 3.5\nmse = 337.3333\nsamples = 9\nvalue = 473.6667"] ;
154 -> 158 ;
159 [label="mse = 176.8889\nsamples = 3\nvalue = 495.6667"] ;
158 -> 159 ;
160 [label="mse = 54.5556\nsamples = 6\nvalue = 462.6667"] ;
158 -> 160 ;
161 [label="write_pct <= 65.0\nmse = 22360.7502\nsamples = 266\nvalue = 534.3947"] ;
101 -> 161 ;
162 [label="followers <= 3.5\nmse = 21262.7809\nsamples = 114\nvalue = 448.8684"] ;
161 -> 162 ;
163 [label="leaders <= 3.5\nmse = 24611.1505\nsamples = 57\nvalue = 392.1579"] ;
162 -> 163 ;
164 [label="write_pct <= 57.5\nmse = 22477.8044\nsamples = 45\nvalue = 420.1333"] ;
163 -> 164 ;
165 [label="followers <= 1.5\nmse = 20721.0\nsamples = 30\nvalue = 384.0"] ;
164 -> 165 ;
166 [label="mse = 14016.7222\nsamples = 12\nvalue = 307.6667"] ;
165 -> 166 ;
167 [label="mse = 18716.321\nsamples = 18\nvalue = 434.8889"] ;
165 -> 167 ;
168 [label="leaders <= 2.5\nmse = 18157.7067\nsamples = 15\nvalue = 492.4"] ;
164 -> 168 ;
169 [label="mse = 6233.1111\nsamples = 9\nvalue = 544.3333"] ;
168 -> 169 ;
170 [label="mse = 25930.5833\nsamples = 6\nvalue = 414.5"] ;
168 -> 170 ;
171 [label="write_pct <= 52.5\nmse = 18670.6875\nsamples = 12\nvalue = 287.25"] ;
163 -> 171 ;
172 [label="followers <= 1.0\nmse = 7370.75\nsamples = 4\nvalue = 403.5"] ;
171 -> 172 ;
173 [label="mse = 2401.0\nsamples = 2\nvalue = 325.0"] ;
172 -> 173 ;
174 [label="mse = 16.0\nsamples = 2\nvalue = 482.0"] ;
172 -> 174 ;
175 [label="write_pct <= 57.5\nmse = 14185.1094\nsamples = 8\nvalue = 229.125"] ;
171 -> 175 ;
176 [label="mse = 3250.6875\nsamples = 4\nvalue = 155.25"] ;
175 -> 176 ;
177 [label="mse = 14204.5\nsamples = 4\nvalue = 303.0"] ;
175 -> 177 ;
178 [label="leaders <= 3.5\nmse = 11482.2438\nsamples = 57\nvalue = 505.5789"] ;
162 -> 178 ;
179 [label="leaders <= 2.5\nmse = 7190.9109\nsamples = 33\nvalue = 542.7576"] ;
178 -> 179 ;
180 [label="followers <= 5.0\nmse = 7278.3488\nsamples = 18\nvalue = 565.6111"] ;
179 -> 180 ;
181 [label="mse = 10956.5833\nsamples = 6\nvalue = 510.5"] ;
180 -> 181 ;
182 [label="mse = 3161.3056\nsamples = 12\nvalue = 593.1667"] ;
180 -> 182 ;
183 [label="write_pct <= 57.5\nmse = 5707.1556\nsamples = 15\nvalue = 515.3333"] ;
179 -> 183 ;
184 [label="mse = 6804.24\nsamples = 10\nvalue = 500.4"] ;
183 -> 184 ;
185 [label="mse = 2174.96\nsamples = 5\nvalue = 545.2"] ;
183 -> 185 ;
186 [label="followers <= 6.0\nmse = 12868.9149\nsamples = 24\nvalue = 454.4583"] ;
178 -> 186 ;
187 [label="write_pct <= 52.5\nmse = 23346.2469\nsamples = 9\nvalue = 422.4444"] ;
186 -> 187 ;
188 [label="mse = 3442.6667\nsamples = 3\nvalue = 466.0"] ;
187 -> 188 ;
189 [label="mse = 31875.2222\nsamples = 6\nvalue = 400.6667"] ;
187 -> 189 ;
190 [label="followers <= 23.5\nmse = 5598.6222\nsamples = 15\nvalue = 473.6667"] ;
186 -> 190 ;
191 [label="mse = 7807.5556\nsamples = 9\nvalue = 497.3333"] ;
190 -> 191 ;
192 [label="mse = 184.8056\nsamples = 6\nvalue = 438.1667"] ;
190 -> 192 ;
193 [label="followers <= 7.0\nmse = 13583.6169\nsamples = 152\nvalue = 598.5395"] ;
161 -> 193 ;
194 [label="followers <= 2.5\nmse = 5437.2075\nsamples = 108\nvalue = 657.5741"] ;
193 -> 194 ;
195 [label="write_pct <= 85.0\nmse = 3787.9056\nsamples = 60\nvalue = 698.8333"] ;
194 -> 195 ;
196 [label="leaders <= 3.5\nmse = 2624.7567\nsamples = 30\nvalue = 658.1"] ;
195 -> 196 ;
197 [label="mse = 876.4236\nsamples = 22\nvalue = 683.4091"] ;
196 -> 197 ;
198 [label="mse = 827.0\nsamples = 8\nvalue = 588.5"] ;
196 -> 198 ;
199 [label="write_pct <= 95.0\nmse = 1632.6456\nsamples = 30\nvalue = 739.5667"] ;
195 -> 199 ;
200 [label="mse = 957.6889\nsamples = 15\nvalue = 718.3333"] ;
199 -> 200 ;
201 [label="mse = 1405.8933\nsamples = 15\nvalue = 760.8"] ;
199 -> 201 ;
202 [label="write_pct <= 85.0\nmse = 2711.0417\nsamples = 48\nvalue = 606.0"] ;
194 -> 202 ;
203 [label="leaders <= 3.5\nmse = 1256.7899\nsamples = 24\nvalue = 573.2917"] ;
202 -> 203 ;
204 [label="mse = 758.7191\nsamples = 18\nvalue = 585.0556"] ;
203 -> 204 ;
205 [label="mse = 1090.3333\nsamples = 6\nvalue = 538.0"] ;
203 -> 205 ;
206 [label="leaders <= 3.5\nmse = 2025.6233\nsamples = 24\nvalue = 638.7083"] ;
202 -> 206 ;
207 [label="mse = 1699.608\nsamples = 18\nvalue = 653.9444"] ;
206 -> 207 ;
208 [label="mse = 218.0\nsamples = 6\nvalue = 593.0"] ;
206 -> 208 ;
209 [label="followers <= 15.0\nmse = 4028.1405\nsamples = 44\nvalue = 453.6364"] ;
193 -> 209 ;
210 [label="write_pct <= 85.0\nmse = 1229.8875\nsamples = 20\nvalue = 510.25"] ;
209 -> 210 ;
211 [label="leaders <= 3.5\nmse = 870.56\nsamples = 10\nvalue = 489.8"] ;
210 -> 211 ;
212 [label="mse = 810.2222\nsamples = 6\nvalue = 504.6667"] ;
211 -> 212 ;
213 [label="mse = 132.25\nsamples = 4\nvalue = 467.5"] ;
211 -> 213 ;
214 [label="followers <= 11.0\nmse = 752.81\nsamples = 10\nvalue = 530.7"] ;
210 -> 214 ;
215 [label="mse = 473.5556\nsamples = 6\nvalue = 547.3333"] ;
214 -> 215 ;
216 [label="mse = 134.1875\nsamples = 4\nvalue = 505.75"] ;
214 -> 216 ;
217 [label="followers <= 24.5\nmse = 1463.3316\nsamples = 24\nvalue = 406.4583"] ;
209 -> 217 ;
218 [label="leaders <= 2.5\nmse = 439.1875\nsamples = 12\nvalue = 436.75"] ;
217 -> 218 ;
219 [label="mse = 253.6875\nsamples = 4\nvalue = 457.25"] ;
218 -> 219 ;
220 [label="mse = 216.75\nsamples = 8\nvalue = 426.5"] ;
218 -> 220 ;
221 [label="leaders <= 3.5\nmse = 652.3056\nsamples = 12\nvalue = 376.1667"] ;
217 -> 221 ;
222 [label="mse = 230.6875\nsamples = 4\nvalue = 401.25"] ;
221 -> 222 ;
223 [label="mse = 391.2344\nsamples = 8\nvalue = 363.625"] ;
221 -> 223 ;
224 [label="leaders <= 8.5\nmse = 9260.4255\nsamples = 1128\nvalue = 384.5009"] ;
100 -> 224 ;
225 [label="followers <= 7.5\nmse = 13551.2869\nsamples = 324\nvalue = 442.5123"] ;
224 -> 225 ;
226 [label="write_pct <= 75.0\nmse = 20459.8607\nsamples = 144\nvalue = 478.1875"] ;
225 -> 226 ;
227 [label="write_pct <= 47.5\nmse = 23658.7377\nsamples = 108\nvalue = 452.7222"] ;
226 -> 227 ;
228 [label="write_pct <= 25.0\nmse = 14105.29\nsamples = 60\nvalue = 522.1"] ;
227 -> 228 ;
229 [label="followers <= 3.5\nmse = 17508.0816\nsamples = 24\nvalue = 431.5417"] ;
228 -> 229 ;
230 [label="mse = 6228.0\nsamples = 12\nvalue = 521.0"] ;
229 -> 230 ;
231 [label="mse = 12782.5764\nsamples = 12\nvalue = 342.0833"] ;
229 -> 231 ;
232 [label="leaders <= 6.5\nmse = 2724.7492\nsamples = 36\nvalue = 582.4722"] ;
228 -> 232 ;
233 [label="mse = 1045.276\nsamples = 24\nvalue = 607.125"] ;
232 -> 233 ;
234 [label="mse = 2437.1389\nsamples = 12\nvalue = 533.1667"] ;
232 -> 234 ;
235 [label="write_pct <= 65.0\nmse = 22063.2083\nsamples = 48\nvalue = 366.0"] ;
227 -> 235 ;
236 [label="write_pct <= 52.5\nmse = 22095.4529\nsamples = 36\nvalue = 325.6389"] ;
235 -> 236 ;
237 [label="mse = 3362.2222\nsamples = 12\nvalue = 425.6667"] ;
236 -> 237 ;
238 [label="mse = 23957.901\nsamples = 24\nvalue = 275.625"] ;
236 -> 238 ;
239 [label="followers <= 0.5\nmse = 2418.2431\nsamples = 12\nvalue = 487.0833"] ;
235 -> 239 ;
240 [label="mse = 380.25\nsamples = 2\nvalue = 401.5"] ;
239 -> 240 ;
241 [label="mse = 1067.96\nsamples = 10\nvalue = 504.2"] ;
239 -> 241 ;
242 [label="write_pct <= 95.0\nmse = 3081.4653\nsamples = 36\nvalue = 554.5833"] ;
226 -> 242 ;
243 [label="followers <= 3.5\nmse = 2011.0764\nsamples = 24\nvalue = 531.9167"] ;
242 -> 243 ;
244 [label="leaders <= 5.5\nmse = 2583.9167\nsamples = 12\nvalue = 556.5"] ;
243 -> 244 ;
245 [label="mse = 451.25\nsamples = 4\nvalue = 605.5"] ;
244 -> 245 ;
246 [label="mse = 1849.5\nsamples = 8\nvalue = 532.0"] ;
244 -> 246 ;
247 [label="write_pct <= 85.0\nmse = 229.5556\nsamples = 12\nvalue = 507.3333"] ;
243 -> 247 ;
248 [label="mse = 190.1389\nsamples = 6\nvalue = 498.8333"] ;
247 -> 248 ;
249 [label="mse = 124.4722\nsamples = 6\nvalue = 515.8333"] ;
247 -> 249 ;
250 [label="followers <= 3.5\nmse = 2139.5764\nsamples = 12\nvalue = 599.9167"] ;
242 -> 250 ;
251 [label="leaders <= 6.5\nmse = 953.8056\nsamples = 6\nvalue = 638.8333"] ;
250 -> 251 ;
252 [label="mse = 996.6875\nsamples = 4\nvalue = 650.75"] ;
251 -> 252 ;
253 [label="mse = 16.0\nsamples = 2\nvalue = 615.0"] ;
251 -> 253 ;
254 [label="leaders <= 7.0\nmse = 296.3333\nsamples = 6\nvalue = 561.0"] ;
250 -> 254 ;
255 [label="mse = 396.1875\nsamples = 4\nvalue = 564.75"] ;
254 -> 255 ;
256 [label="mse = 12.25\nsamples = 2\nvalue = 553.5"] ;
254 -> 256 ;
257 [label="write_pct <= 25.0\nmse = 6191.7159\nsamples = 180\nvalue = 413.9722"] ;
225 -> 257 ;
258 [label="followers <= 18.5\nmse = 4929.7389\nsamples = 30\nvalue = 364.1667"] ;
257 -> 258 ;
259 [label="write_pct <= 15.0\nmse = 3497.6173\nsamples = 18\nvalue = 323.2222"] ;
258 -> 259 ;
260 [label="followers <= 8.5\nmse = 2738.6667\nsamples = 9\nvalue = 356.6667"] ;
259 -> 260 ;
261 [label="mse = 324.0\nsamples = 2\nvalue = 307.0"] ;
260 -> 261 ;
262 [label="mse = 2522.4082\nsamples = 7\nvalue = 370.8571"] ;
260 -> 262 ;
263 [label="followers <= 8.5\nmse = 2019.5062\nsamples = 9\nvalue = 289.7778"] ;
259 -> 263 ;
264 [label="mse = 36.0\nsamples = 2\nvalue = 227.0"] ;
263 -> 264 ;
265 [label="mse = 1138.4898\nsamples = 7\nvalue = 307.7143"] ;
263 -> 265 ;
266 [label="leaders <= 6.5\nmse = 791.2431\nsamples = 12\nvalue = 425.5833"] ;
258 -> 266 ;
267 [label="followers <= 22.0\nmse = 503.3594\nsamples = 8\nvalue = 439.125"] ;
266 -> 267 ;
268 [label="mse = 64.0\nsamples = 2\nvalue = 467.0"] ;
267 -> 268 ;
269 [label="mse = 304.4722\nsamples = 6\nvalue = 429.8333"] ;
267 -> 269 ;
270 [label="write_pct <= 15.0\nmse = 266.75\nsamples = 4\nvalue = 398.5"] ;
266 -> 270 ;
271 [label="mse = 49.0\nsamples = 2\nvalue = 383.0"] ;
270 -> 271 ;
272 [label="mse = 4.0\nsamples = 2\nvalue = 414.0"] ;
270 -> 272 ;
273 [label="write_pct <= 52.5\nmse = 5848.7689\nsamples = 150\nvalue = 423.9333"] ;
257 -> 273 ;
274 [label="followers <= 26.0\nmse = 2614.9789\nsamples = 60\nvalue = 469.2333"] ;
273 -> 274 ;
275 [label="followers <= 11.5\nmse = 1383.1875\nsamples = 44\nvalue = 491.25"] ;
274 -> 275 ;
276 [label="mse = 1072.9275\nsamples = 20\nvalue = 517.15"] ;
275 -> 276 ;
277 [label="mse = 616.8889\nsamples = 24\nvalue = 469.6667"] ;
275 -> 277 ;
278 [label="followers <= 30.0\nmse = 1003.5898\nsamples = 16\nvalue = 408.6875"] ;
274 -> 278 ;
279 [label="mse = 67.1875\nsamples = 4\nvalue = 427.25"] ;
278 -> 279 ;
280 [label="mse = 1162.5833\nsamples = 12\nvalue = 402.5"] ;
278 -> 280 ;
281 [label="write_pct <= 57.5\nmse = 5724.5289\nsamples = 90\nvalue = 393.7333"] ;
273 -> 281 ;
282 [label="followers <= 18.5\nmse = 9893.5822\nsamples = 15\nvalue = 318.8667"] ;
281 -> 282 ;
283 [label="mse = 3980.0\nsamples = 9\nvalue = 249.6667"] ;
282 -> 283 ;
284 [label="mse = 806.5556\nsamples = 6\nvalue = 422.6667"] ;
282 -> 284 ;
285 [label="followers <= 12.5\nmse = 3545.514\nsamples = 75\nvalue = 408.7067"] ;
281 -> 285 ;
286 [label="mse = 2819.5822\nsamples = 30\nvalue = 449.1333"] ;
285 -> 286 ;
287 [label="mse = 2213.5625\nsamples = 45\nvalue = 381.7556"] ;
285 -> 287 ;
288 [label="write_pct <= 47.5\nmse = 5628.5756\nsamples = 804\nvalue = 361.1231"] ;
224 -> 288 ;
289 [label="write_pct <= 25.0\nmse = 5724.1718\nsamples = 335\nvalue = 389.3881"] ;
288 -> 289 ;
290 [label="leaders <= 16.5\nmse = 8980.1891\nsamples = 134\nvalue = 357.3731"] ;
289 -> 290 ;
291 [label="followers <= 9.0\nmse = 3262.3352\nsamples = 66\nvalue = 272.5758"] ;
290 -> 291 ;
292 [label="write_pct <= 15.0\nmse = 3239.3117\nsamples = 18\nvalue = 225.2778"] ;
291 -> 292 ;
293 [label="mse = 2669.9506\nsamples = 9\nvalue = 255.2222"] ;
292 -> 293 ;
294 [label="mse = 2015.3333\nsamples = 9\nvalue = 195.3333"] ;
292 -> 294 ;
295 [label="leaders <= 10.5\nmse = 2117.4648\nsamples = 48\nvalue = 290.3125"] ;
291 -> 295 ;
296 [label="mse = 1432.2296\nsamples = 14\nvalue = 335.6429"] ;
295 -> 296 ;
297 [label="mse = 1205.1107\nsamples = 34\nvalue = 271.6471"] ;
295 -> 297 ;
298 [label="leaders <= 32.5\nmse = 776.9247\nsamples = 68\nvalue = 439.6765"] ;
290 -> 298 ;
299 [label="followers <= 21.0\nmse = 575.6161\nsamples = 56\nvalue = 445.75"] ;
298 -> 299 ;
300 [label="mse = 567.6775\nsamples = 40\nvalue = 452.85"] ;
299 -> 300 ;
301 [label="mse = 154.375\nsamples = 16\nvalue = 428.0"] ;
299 -> 301 ;
302 [label="write_pct <= 15.0\nmse = 740.8889\nsamples = 12\nvalue = 411.3333"] ;
298 -> 302 ;
303 [label="mse = 77.3333\nsamples = 6\nvalue = 433.0"] ;
302 -> 303 ;
304 [label="mse = 465.5556\nsamples = 6\nvalue = 389.6667"] ;
302 -> 304 ;
305 [label="leaders <= 22.0\nmse = 2414.6542\nsamples = 201\nvalue = 410.7313"] ;
289 -> 305 ;
306 [label="followers <= 27.5\nmse = 2242.974\nsamples = 138\nvalue = 425.9348"] ;
305 -> 306 ;
307 [label="leaders <= 10.5\nmse = 2061.1668\nsamples = 114\nvalue = 435.614"] ;
306 -> 307 ;
308 [label="mse = 1976.9796\nsamples = 21\nvalue = 474.8571"] ;
307 -> 308 ;
309 [label="mse = 1653.9066\nsamples = 93\nvalue = 426.7527"] ;
307 -> 309 ;
310 [label="leaders <= 13.0\nmse = 547.7066\nsamples = 24\nvalue = 379.9583"] ;
306 -> 310 ;
311 [label="mse = 73.5802\nsamples = 9\nvalue = 393.4444"] ;
310 -> 311 ;
312 [label="mse = 657.5822\nsamples = 15\nvalue = 371.8667"] ;
310 -> 312 ;
313 [label="followers <= 11.0\nmse = 1175.3243\nsamples = 63\nvalue = 377.4286"] ;
305 -> 313 ;
314 [label="followers <= 5.5\nmse = 733.5556\nsamples = 33\nvalue = 358.6667"] ;
313 -> 314 ;
315 [label="mse = 370.8673\nsamples = 18\nvalue = 346.7222"] ;
314 -> 315 ;
316 [label="mse = 792.1333\nsamples = 15\nvalue = 373.0"] ;
314 -> 316 ;
317 [label="leaders <= 28.5\nmse = 848.1289\nsamples = 30\nvalue = 398.0667"] ;
313 -> 317 ;
318 [label="mse = 293.5374\nsamples = 21\nvalue = 409.7143"] ;
317 -> 318 ;
319 [label="mse = 1086.9877\nsamples = 9\nvalue = 370.8889"] ;
317 -> 319 ;
320 [label="write_pct <= 65.0\nmse = 4582.0404\nsamples = 469\nvalue = 340.9339"] ;
288 -> 320 ;
321 [label="write_pct <= 52.5\nmse = 6535.7774\nsamples = 201\nvalue = 310.7114"] ;
320 -> 321 ;
322 [label="leaders <= 11.5\nmse = 3161.2898\nsamples = 67\nvalue = 347.3134"] ;
321 -> 322 ;
323 [label="followers <= 8.0\nmse = 633.0178\nsamples = 13\nvalue = 393.4615"] ;
322 -> 323 ;
324 [label="mse = 90.6875\nsamples = 4\nvalue = 366.25"] ;
323 -> 324 ;
325 [label="mse = 398.6914\nsamples = 9\nvalue = 405.5556"] ;
323 -> 325 ;
326 [label="leaders <= 40.5\nmse = 3133.8289\nsamples = 54\nvalue = 336.2037"] ;
322 -> 326 ;
327 [label="mse = 2516.0129\nsamples = 52\nvalue = 340.2115"] ;
326 -> 327 ;
328 [label="mse = 7921.0\nsamples = 2\nvalue = 232.0"] ;
326 -> 328 ;
329 [label="leaders <= 19.0\nmse = 7218.242\nsamples = 134\nvalue = 292.4104"] ;
321 -> 329 ;
330 [label="followers <= 25.0\nmse = 7449.0844\nsamples = 80\nvalue = 258.375"] ;
329 -> 330 ;
331 [label="mse = 7312.866\nsamples = 62\nvalue = 237.8548"] ;
330 -> 331 ;
332 [label="mse = 1472.1636\nsamples = 18\nvalue = 329.0556"] ;
330 -> 332 ;
333 [label="followers <= 5.5\nmse = 2617.6204\nsamples = 54\nvalue = 342.8333"] ;
329 -> 333 ;
334 [label="mse = 964.102\nsamples = 14\nvalue = 291.4286"] ;
333 -> 334 ;
335 [label="mse = 1947.7944\nsamples = 40\nvalue = 360.825"] ;
333 -> 335 ;
336 [label="leaders <= 13.5\nmse = 1917.904\nsamples = 268\nvalue = 363.6007"] ;
320 -> 336 ;
337 [label="followers <= 11.5\nmse = 2383.7623\nsamples = 84\nvalue = 395.3929"] ;
336 -> 337 ;
338 [label="write_pct <= 85.0\nmse = 1521.9344\nsamples = 36\nvalue = 438.6944"] ;
337 -> 338 ;
339 [label="mse = 714.9136\nsamples = 18\nvalue = 417.4444"] ;
338 -> 339 ;
340 [label="mse = 1425.8302\nsamples = 18\nvalue = 459.9444"] ;
338 -> 340 ;
341 [label="followers <= 21.5\nmse = 569.1597\nsamples = 48\nvalue = 362.9167"] ;
337 -> 341 ;
342 [label="mse = 335.4949\nsamples = 28\nvalue = 374.9286"] ;
341 -> 342 ;
343 [label="mse = 411.49\nsamples = 20\nvalue = 346.1"] ;
341 -> 343 ;
344 [label="followers <= 16.5\nmse = 1033.1555\nsamples = 184\nvalue = 349.087"] ;
336 -> 344 ;
345 [label="leaders <= 25.0\nmse = 1301.5292\nsamples = 104\nvalue = 360.5962"] ;
344 -> 345 ;
346 [label="mse = 907.5567\nsamples = 60\nvalue = 380.9"] ;
345 -> 346 ;
347 [label="mse = 510.0372\nsamples = 44\nvalue = 332.9091"] ;
345 -> 347 ;
348 [label="followers <= 26.5\nmse = 288.2094\nsamples = 80\nvalue = 334.125"] ;
344 -> 348 ;
349 [label="mse = 236.2023\nsamples = 52\nvalue = 340.0962"] ;
348 -> 349 ;
350 [label="mse = 195.6059\nsamples = 28\nvalue = 323.0357"] ;
348 -> 350 ;
}